{"HiddenLayer":[0.9824162255131401,0.13642946878252157,0.0068604381697022696,0.8067829208903083,0.08126856662895587,0.8427076660481837,0.9360318877230206,0.013690880220738133,0.193949980154364,0.9834204910703864,0.011014412119791187,0.7066838798724517,0.9991048528847534,0.3263446073641792,0.3174847244563235,0.6183191772347398,1],"InputLayer":[0.1,0,1,1],"OutputLayer":[7.515166371901139e-8,0.005675535047136581,0.99577901072059,0.000001921213093167962],"WeightHidden":[[-1.693571539179369,-0.1067962125058027,5.048594832768806,-0.8561976248758612],[-0.24033528114132918,-0.6150029649610799,-0.9770381812023736,-0.8441958811500693],[2.155554407030926,0.47311075844164174,-6.314375759636751,1.1237201721432295],[-9.65780367899346,-3.715200192590078,3.005325736936366,-0.6102757459062299],[3.947345948024492,1.211776135470094,-0.043266263538505545,-2.7766938083513124],[-6.208105031309196,-0.30562879852601305,1.85496275642462,0.4443615122704838],[-0.024506722161876927,0.937205732091171,1.324460671683945,1.3612577646923254],[6.891311917911201,2.272586094418494,-2.6098428950927572,-2.356522483077059],[9.714739790156603,3.4505826673199067,-2.925428127535992,0.529382713244828],[-7.358330650158377,-2.028539703089182,2.5983408950311655,2.220356394093727],[2.142590282283921,1.0312321476766546,-4.954936119019143,0.24320205405279585],[-3.5562067292239625,-0.7078139974673296,1.954018151429186,-0.7190592865913915],[-13.597989207810155,-3.062331394724855,5.18220102822669,3.1952174404072595],[5.434817192969435,3.123281148006344,-2.2355419690482123,0.967275710268246],[3.77164871561455,0.1756828372853316,-1.687855993909938,0.545335928128503],[-3.8591561104939394,-2.256093935521238,-0.1362913659659889,1.0046451365907736],[0.21707197138907586,-0.6190267677488509,0.3977721651843251,0.8582555160160728]],"WeightOutput":[[5.1219515485726586,-0.9590077021304546,-8.40822136695354,-1.9906030187208084,1.9288366885766883,-4.16846676190832,-0.22426102387615054,2.5266053939728312,2.13658379900486,-4.4853605714817135,-5.069796868992248,-2.3686183865135826,-9.237424811502905,-0.0994004080871197,1.8786440707878882,-1.5232329210869227,-0.7764566660249207],[-2.902561073652855,0.3278128913862311,-2.620196375097745,-9.86885637197805,-4.730931620689772,0.7823962725621212,-3.975020918396731,-6.0669703115870455,7.400952268598104,3.843050094765312,-3.4160311813966544,-0.8566376101632817,9.721305945454256,3.2328936618147375,-1.557390201760945,-3.7723971417481423,-3.362608574355492],[-0.15584727917028834,1.014467422347047,-1.8783795863628079,3.2440497748801236,-0.9059035205425117,3.257046600675687,-2.1050513946476666,-1.8656448925055975,-5.2195153692608764,2.4874047598568496,-0.843253927047024,1.9290661812787087,2.8940171365488636,-4.198642646343218,-3.7296647511234267,1.7082002513921064,-1.982460116100347],[-3.711689759785608,0.5033691118972421,4.185582978990465,-0.15818932884175763,-0.1805172612179184,-1.4890815845983405,-1.5638500514791362,0.9088559346999753,0.4976587498382759,-1.4788729315368636,3.5833533135972595,-2.5715866540931853,-1.6975121329218663,-0.04366140457405286,0.8973762787717883,-0.9092841591003263,-1.6417621900749741]],"ErrOutput":[7.515166371901139e-8,0.005675535047136581,-0.004220989279409948,0.000001921213093167962],"ErrHidden":[-0.00009020045614502835,-0.00000749869082624527,-0.00005059657701031726,-0.0003736426000730123,-0.00013545426118678224,-0.000032725480798316175,-0.00008996825561957576,-0.00016121880281794241,0.000329646584435626,0.0000789585165623612,-0.00009445100300918213,-0.00006166152400401924,0.0002600185328282282,0.0001780365193035705,0.000016288692359362388,-0.00015113156179204917,0],"LastChangeHidden":[[-2.202238609935216e-7,-3.805438207442471e-7,-7.700863263915956e-7,-7.610850064763444e-7],[3.038247460602915e-8,1.138041432269032e-7,-1.0708371468886585e-7,-1.1149415708950925e-7],[9.178360589722926e-8,2.1505994144453286e-7,1.28876677173679e-7,1.2174842025410515e-7],[-0.0000014652129955539835,-1.8201618274351424e-8,-0.000014579313583274218,-0.000014579451090393141],[-0.000001217258866125572,-0.0000019436000813507204,-0.0000044707420648955505,-0.000004464730540756893],[4.915565379834577e-7,0.000001200574718296292,1.1545479530698064e-7,1.159008990921447e-7],[-1.8893374120059728e-7,-1.1139874623351209e-7,-0.000001458110195369539,-0.0000014567009287081212],[-0.0000011762906832557477,-0.0000022448887956317714,-0.0000027878210486242115,-0.000002788689917984996],[0.00000129586795652237,1.5018051228538614e-8,0.000012898597305293467,0.000012898711051893703],[0.0000011026847578217184,0.000002142126264942767,0.000002462791957085509,0.0000024635247536085336],[6.502788441735986e-8,2.018465792184161e-7,-5.536850439948678e-8,-6.554333951477652e-8],[-1.412416982167914e-7,3.5728666894680467e-7,-0.000002838089937378616,-0.0000028383888927985705],[0.000001778156036423124,0.0000035449076291013036,0.0000036019140402275735,0.0000036030390736647466],[9.978217739271194e-7,3.8670720481077265e-8,0.000009823563859456297,0.000009823724479810984],[-3.4637089088707685e-7,-8.701132942287358e-7,1.2857277018427883e-8,1.2668910205662654e-8],[-9.319472045527012e-7,-7.819874753660595e-8,-0.000008994918275726502,-0.00000899615808953024],[0,0,0,0]],"LastChangeOutput":[[-0.0000012997115530750693,-9.231382692569903e-8,-1.5302448302624885e-8,-2.8741112596765318e-9,-7.829449140310651e-7,-3.3489546966260237e-7,-0.0000013007320940340857,-8.99299702345928e-7,-0.0000013285236210810419,-3.936168137615977e-7,-7.437634444073959e-8,-3.00468664122351e-7,-2.4962230386859446e-7,-0.0000013183899924750958,-9.469673873457142e-7,-4.621668531807066e-8,-0.0000013321658112456551],[0.000008968230413412103,0.0000011749063873052494,8.425711465951142e-8,0.000006462515586740077,0.000001326635616033308,0.000007031213842221834,0.000008609903446445413,8.882183677298951e-7,0.000002694973686083885,0.00000820760909848351,1.6675545662651366e-7,0.000005913018571034554,0.000008210980488016196,0.000003746494753584166,0.000003361002290832979,0.000004991086418197875,0.000009152269925431802],[-0.0000043573871334856885,-6.051171280915697e-7,-3.042869445881099e-8,-0.000003578396286458078,-3.6045180115196676e-7,-0.0000037377308755401047,-0.000004151654741455179,-6.072169393605394e-8,-8.602324108631925e-7,-0.00000436184450288873,-4.88531680389089e-8,-0.0000031344122027008715,-0.000004431408629431385,-0.000001447454223492647,-0.0000014081630044254756,-0.0000027424843588843225,-0.000004435377966872705],[5.807128267284839e-8,2.2558188892478e-9,-6.583381733350109e-9,1.3040149019725554e-10,2.9551922041087454e-8,1.5086792143574974e-8,5.268680380172516e-8,3.3081835821088283e-8,5.2368967768809405e-8,1.7717998183740703e-8,-3.5580251523736486e-9,1.3455750605010104e-8,1.1273959492672276e-8,5.19237294003868e-8,3.5253955471886186e-8,1.6737413999445676e-9,5.2534045933398706e-8]],"Regression":false,"Rate1":0.25,"Rate2":0.1}
